SVM-light Version V6.20
0 # kernel type
3 # kernel parameter -d 
1 # kernel parameter -g 
1 # kernel parameter -s 
1 # kernel parameter -r 
empty# kernel parameter -u 
83 # highest feature index 
88 # number of training documents 
2 # number of support vectors plus 1 
0 # threshold b, each following line is a SV (starting with alpha*y)
1 3:0.26484323 4:0.026720386 10:-1.3340118 15:1.6837767 16:0.10417884 17:-0.25132528 19:-0.0074918396 20:-0.061791077 21:0.11055407 25:0.1980409 26:0.16393675 27:-0.14783651 39:-0.44828331 40:0.6408698 41:0.55796844 42:0.059138842 55:-0.22884829 56:0.30017811 57:0.49137351 58:-0.045703769 63:-0.025552483 64:-0.038770448 65:0.072402976 66:-0.0022780581 72:-0.027074639 73:0.35244596 75:0.21408612 76:0.034280464 #
