SVM-light Version V6.20
0 # kernel type
3 # kernel parameter -d 
1 # kernel parameter -g 
1 # kernel parameter -s 
1 # kernel parameter -r 
empty# kernel parameter -u 
83 # highest feature index 
95 # number of training documents 
2 # number of support vectors plus 1 
0 # threshold b, each following line is a SV (starting with alpha*y)
1 3:0.41564953 4:0.039591838 10:-0.51242679 15:1.5232023 16:0.091393746 17:-0.27828375 19:0.021120403 20:0.046342731 21:0.047611482 25:0.22143511 26:0.039496932 27:-0.13700996 39:-0.43510494 40:0.95590407 41:0.33209088 42:-0.25167271 55:-0.10530351 56:0.3739033 57:0.44087806 58:-0.063086472 63:0.27692538 64:0.12585208 65:-0.051436156 66:-0.1238377 72:-0.055623814 73:0.21947917 75:0.1732465 76:0.085883953 #
